LP45	-146.09852600097656	291.66192626953125	368.3868713378906	20.876911163330078	-19.92905616760254	21.293729782104492	0.05313682183623314	-111.58289337158203	29.380807876586914	-19.086292266845703
LP47	-109.80810546875	269.76348876953125	280.9277648925781	17.828399658203125	13.904016494750977	5.016037940979004	-46.40504455566406	-60.077720642089844	-69.04825592041016	-476.0607604980469
LP52	-128.98898315429688	258.1946105957031	321.4485168457031	23.191097259521484	-3.0287365913391113	3.0434682369232178	-23.20825958251953	-47.55994415283203	82.56989288330078	-251.38681030273438
LP63	-109.61283111572266	289.027099609375	350.1667175292969	8.347378730773926	5.170739650726318	-26.766786575317383	8.410380363464355	461.5200500488281	-38.14280700683594	363.53253173828125
LP71	-135.29782104492188	278.8780822753906	347.38922119140625	15.112330436706543	-13.270441055297852	8.55066204071045	5.281709671020508	59.82186508178711	-44.836238861083984	69.74996948242188
LP74	-137.6905975341797	302.4273681640625	306.5341796875	15.108893394470215	10.992729187011719	56.556060791015625	-5.341059684753418	-231.14688110351562	91.52770233154297	-167.0166778564453
LP75	-117.88793182373047	280.2740478515625	328.4046630859375	6.3969621658325195	-26.290056228637695	-28.3360652923584	-20.15481948852539	112.14263916015625	-35.63153839111328	28.75580406188965
LP76	-141.8406982421875	291.8273620605469	388.2620544433594	16.799901962280273	-11.352086067199707	22.38313102722168	1.3659493923187256	-188.26596069335938	59.93285369873047	-229.06747436523438
LP79	-112.98382568359375	277.17034912109375	338.9576721191406	2.7310328483581543	-14.619828224182129	-10.949841499328613	9.290542602539062	-2.378305196762085	31.096214294433594	91.7093734741211
LP224	-130.60939025878906	284.77935791015625	327.52728271484375	12.56417465209961	-16.22119903564453	-25.067298889160156	-6.299062252044678	100.99830627441406	-17.38362693786621	132.0255584716797
LP226	-118.23056030273438	289.61962890625	299.4127502441406	7.074821949005127	46.8752326965332	-0.8365362882614136	12.54867172241211	-236.60264587402344	82.63212585449219	119.1906509399414
LP235	-131.48106384277344	312.9695739746094	222.51185607910156	13.570377349853516	-8.018095016479492	-14.549830436706543	-10.792259216308594	322.3487548828125	-1.8441076278686523	-70.6048812866211
LP238	-126.51168823242188	272.90960693359375	266.28082275390625	9.65174388885498	-10.423711776733398	-18.08236312866211	-4.305899143218994	-145.65335083007812	-2.131312608718872	-51.712684631347656
LP249	-138.4137420654297	280.8683776855469	311.5223083496094	15.158036231994629	-2.639713764190674	12.615774154663086	-2.9843759536743164	71.04435729980469	-12.434260368347168	-16.26301383972168
LP250	-132.14500427246094	293.48516845703125	348.3182067871094	14.698410034179688	2.127061367034912	0.4763561189174652	10.8714017868042	-142.70675659179688	78.0032730102539	-185.5489959716797
LP252	-132.9483184814453	270.25274658203125	336.1422424316406	6.547263145446777	-1.3735251426696777	12.515210151672363	16.612276077270508	145.455322265625	18.029247283935547	258.0514831542969
LP258	-140.91741943359375	265.1504211425781	326.9096374511719	17.21409797668457	-8.789756774902344	3.881930112838745	7.114040374755859	253.09596252441406	-48.371280670166016	181.10536193847656
LP259	-128.7566375732422	279.2909851074219	342.75823974609375	8.763219833374023	-13.74382209777832	34.521148681640625	37.265846252441406	-416.7236022949219	1.9080102443695068	390.99090576171875
LP260	-151.20433044433594	225.74624633789062	277.78338623046875	11.876029014587402	16.290180206298828	4.457075119018555	-6.233093738555908	118.15560150146484	-53.96549987792969	-121.291748046875
LP262	-122.47114562988281	291.7692565917969	332.88458251953125	13.563718795776367	6.600372314453125	-4.872080326080322	14.56183910369873	256.3915710449219	-127.75753021240234	54.74808120727539
LP263	-125.58983612060547	282.3543701171875	308.962890625	14.603286743164062	-16.7952880859375	-9.488662719726562	-18.954904556274414	175.10269165039062	-31.351917266845703	49.32208251953125
LP271	-137.72750854492188	291.5722961425781	379.15826416015625	23.723169326782227	19.721229553222656	19.480297088623047	24.236032485961914	-158.1520538330078	41.51673889160156	173.7330322265625
LP680	-124.49613189697266	277.045166015625	323.64166259765625	3.2944252490997314	17.058429718017578	-23.425317764282227	16.47241973876953	39.9913215637207	-12.187161445617676	-173.98114013671875
LP687	-130.7479248046875	273.4671325683594	359.4449462890625	14.801980972290039	-9.924666404724121	9.77751350402832	31.48102378845215	-281.351318359375	9.506071090698242	297.9007568359375
LP700	-123.6944580078125	280.34417724609375	308.1410217285156	9.348834991455078	11.396620750427246	-24.651273727416992	8.48316764831543	-73.61262512207031	3.58095121383667	118.46821594238281
LP722	-118.06428527832031	281.0428771972656	322.04327392578125	7.028564453125	-5.407172679901123	-15.53592586517334	-17.35507583618164	430.20013427734375	-75.67118835449219	126.73841094970703
LP736	-128.5298309326172	299.5655822753906	356.10504150390625	17.52500343322754	-11.229415893554688	-5.531232833862305	-3.034475088119507	337.3512878417969	-9.694622993469238	-197.5747528076172
LP926	-142.1497344970703	264.59759521484375	333.0011291503906	18.813671112060547	-14.223978042602539	0.6294382810592651	-7.006291389465332	-48.093170166015625	-52.11254119873047	-120.58274841308594
LP929	-131.0635528564453	265.6462097167969	305.04901123046875	15.765681266784668	19.432077407836914	6.660833835601807	-14.444402694702148	-101.88495635986328	-23.236351013183594	-100.79705047607422
LP1121	-149.3715362548828	280.1562194824219	293.7113342285156	14.152894020080566	22.547822952270508	8.225909233093262	-6.597518444061279	240.5899658203125	-20.83424186706543	113.72370910644531
LP1124	-116.26686096191406	270.24688720703125	326.4072265625	16.30722999572754	-2.309340000152588	-19.831392288208008	-40.90279769897461	158.38687133789062	15.959761619567871	-750.3270874023438
LP1135	-139.3549041748047	275.867919921875	300.2640075683594	8.563716888427734	-4.6628289222717285	3.0680081844329834	-8.211100578308105	-122.62814331054688	64.6195068359375	-171.75184631347656
LP1136	-131.5552520751953	308.1788330078125	230.22940063476562	4.395999908447266	-8.504786491394043	41.25979995727539	23.467561721801758	-417.0614929199219	77.45003509521484	152.23159790039062
LP1137	-142.08148193359375	303.5657958984375	337.05242919921875	11.013072967529297	4.068962574005127	24.67801284790039	30.113561630249023	-355.2876281738281	67.39360809326172	108.16770935058594
LP1138	-156.2398223876953	262.8117980957031	316.8792724609375	17.874874114990234	-13.533095359802246	-14.47980785369873	8.074481964111328	-148.4080047607422	2.7325472831726074	-23.56184959411621
LP1145	-103.00897979736328	273.1962890625	327.5920715332031	6.74038553237915	8.632204055786133	-11.742754936218262	-9.582643508911133	537.0753784179688	-100.46680450439453	165.58596801757812
LP1152	-120.66044616699219	256.34429931640625	305.9138488769531	10.449644088745117	-5.842074871063232	-6.306240081787109	-9.418405532836914	-114.53408813476562	52.1898078918457	-388.2751159667969
LP1173	-128.6638946533203	290.5936584472656	331.0214538574219	10.509597778320312	0.8032764196395874	4.281011581420898	13.566783905029297	-193.62696838378906	15.154374122619629	245.67327880859375
LP1281	-127.27508544921875	300.1001281738281	307.0374450683594	11.459108352661133	-1.3172144889831543	-21.347972869873047	-40.425411224365234	194.4982452392578	-63.58693313598633	-220.00991821289062
LP1286	-145.49729919433594	262.253173828125	312.7601013183594	11.563098907470703	-5.765024662017822	-26.34217071533203	10.06800365447998	32.19527816772461	-45.310020446777344	23.404674530029297
LP1288	-131.23190307617188	279.6089172363281	295.2793884277344	6.936202049255371	4.376267910003662	-32.651248931884766	-1.5262504816055298	274.2693786621094	-102.46788024902344	51.501705169677734
LP1291	-140.7725372314453	299.9373779296875	370.9330139160156	18.217456817626953	-3.8163914680480957	-12.470782279968262	-4.8905181884765625	-196.1395721435547	53.744388580322266	-330.586669921875
LP1292	-140.399658203125	308.83056640625	371.9312438964844	23.48273277282715	-11.025674819946289	48.92369842529297	20.880077362060547	-339.2408142089844	104.7540283203125	140.73109436035156
LP1293	-136.32728576660156	277.7878112792969	290.1540222167969	14.85749626159668	-12.22390365600586	27.03816032409668	6.234621524810791	-93.9832534790039	-8.15881061553955	203.1948699951172
LP1298	-119.55987548828125	286.07513427734375	344.7200012207031	8.804218292236328	-7.261717319488525	-19.128782272338867	0.9690853357315063	11.189638137817383	-32.50760269165039	316.1139831542969
LBV7	-156.69818115234375	374.9887390136719	-358.4881286621094	15.465874671936035	-2.6172571182250977	18.213693618774414	14.11659049987793	-9.262744903564453	5.53537130355835	28.61586570739746
LBV11	-150.1851806640625	370.3094177246094	-358.95263671875	15.404136657714844	9.093358039855957	-2.7229013442993164	22.062103271484375	14.92750072479248	-11.827601432800293	75.84840393066406
LBV18	-149.2399139404297	377.8414611816406	-364.7570495605469	31.169322967529297	-17.21870994567871	-15.85908317565918	-0.1874212771654129	40.46429443359375	-35.75319290161133	-25.3959903717041
LBV24	-136.31382751464844	381.8206481933594	-345.6061706542969	20.03314208984375	-2.994539976119995	1.11382257938385	-13.012624740600586	2.1534266471862793	-4.50120210647583	-38.45918273925781
LBV27	-141.74118041992188	360.3355712890625	-340.6487121582031	2.0558788776397705	6.629209995269775	0.22157777845859528	-5.474424362182617	-2.7464585304260254	-15.826245307922363	-3.7792718410491943
LBV30	-142.17991638183594	392.9308166503906	-369.3724365234375	15.718812942504883	-6.1722002029418945	-16.36668586730957	1.7667933702468872	5.486565113067627	-34.7958984375	-72.71870422363281
LBV31	-144.048095703125	359.70220947265625	-350.2177429199219	13.325292587280273	-0.38933709263801575	2.960749864578247	17.124631881713867	14.99267864227295	-9.199172019958496	12.239969253540039
LBV39	-155.0709991455078	361.4228515625	-346.2809753417969	23.0777645111084	-9.648327827453613	-2.985013484954834	15.233406066894531	-12.386524200439453	-21.716896057128906	44.2119026184082
LBV43	-133.66067504882812	418.7000427246094	-413.47296142578125	27.307138442993164	-13.620298385620117	-13.581974983215332	16.853214263916016	5.455399513244629	13.186525344848633	32.40289306640625
LBV47	-146.1585693359375	366.2862243652344	-350.8707275390625	2.984543800354004	-11.362226486206055	-6.878532409667969	8.400074005126953	19.88189125061035	16.305477142333984	44.003570556640625
LBV57	-145.80921936035156	384.6103210449219	-372.099365234375	9.372587203979492	4.0180158615112305	8.630728721618652	-16.644006729125977	-9.642326354980469	-16.244136810302734	-69.30502319335938
LBV61	-142.50262451171875	348.5718994140625	-308.7776184082031	4.132297992706299	-15.125117301940918	-7.1737518310546875	23.60372543334961	-27.255420684814453	-2.8095991611480713	-19.65381622314453
LBV70	-130.4150848388672	392.74530029296875	-374.5538635253906	-1.2240722179412842	-8.772300720214844	-5.662267208099365	-22.451669692993164	21.420557022094727	-5.316847801208496	-25.745731353759766
LBV72	-154.94374084472656	419.6293029785156	-392.08221435546875	13.828702926635742	-4.831949234008789	-0.556574285030365	-8.481788635253906	-8.450292587280273	19.994905471801758	-29.499835968017578
LBV82	-139.02745056152344	382.40631103515625	-350.8742980957031	1.446459174156189	1.010407567024231	9.744020462036133	16.40958595275879	-10.629326820373535	-0.09239331632852554	31.134675979614258
LBV83	-151.29656982421875	386.1701965332031	-356.82879638671875	-1.0463107824325562	-1.0552257299423218	6.121261119842529	14.566553115844727	-65.77134704589844	-21.187301635742188	86.99576568603516
LBV88	-157.6205596923828	365.1460876464844	-330.33685302734375	17.394407272338867	-10.584454536437988	21.014911651611328	5.772083759307861	-6.62099552154541	-6.169859409332275	-13.716903686523438
LBV92	-146.0943145751953	385.1393127441406	-363.480712890625	8.825444221496582	-0.8389506340026855	20.247570037841797	5.2432541847229	-13.453457832336426	-24.472740173339844	85.24055480957031
LBV100	-147.33738708496094	371.8057861328125	-362.6993713378906	21.45435905456543	-4.866453647613525	-1.2711286544799805	-1.5380545854568481	18.16790771484375	7.653360843658447	-10.604703903198242
LBV101	-142.39158630371094	363.2659606933594	-340.02703857421875	12.364540100097656	-32.94178771972656	5.4933929443359375	2.245901346206665	4.249089241027832	24.252532958984375	3.20129656791687
LBV102	-146.08033752441406	384.8868103027344	-355.18133544921875	5.771641731262207	-5.196817398071289	-1.4208042621612549	-15.36130142211914	47.56964874267578	13.794380187988281	44.7744255065918
LBV105	-146.64540100097656	371.4665832519531	-353.5002136230469	2.5177953243255615	-0.5357534885406494	-10.765847206115723	-15.443041801452637	19.15955352783203	15.369990348815918	26.006942749023438
LBV106	-159.32655334472656	397.25726318359375	-372.98052978515625	9.88634204864502	-6.252002716064453	-9.93947696685791	5.031691074371338	-36.002197265625	-3.197150468826294	-30.476594924926758
LBV107	-158.84878540039062	362.98193359375	-317.0572509765625	7.9889349937438965	-25.092140197753906	9.572110176086426	-0.6692866683006287	5.069315433502197	17.179157257080078	42.10557556152344
LBV112	-140.5760955810547	390.2401428222656	-352.82855224609375	15.290386199951172	-9.884740829467773	0.4841312766075134	-12.219833374023438	15.591791152954102	-0.1132674440741539	-70.57469940185547
LBV113	-153.1787567138672	362.72515869140625	-328.9431457519531	22.860063552856445	7.664422035217285	-28.84285545349121	-16.81820297241211	4.126053333282471	-18.752023696899414	-99.16841888427734
LBV114	-155.6038818359375	368.5952453613281	-326.2901306152344	10.092756271362305	-13.747594833374023	-7.6203083992004395	-4.726051330566406	0.36990439891815186	-11.437173843383789	-32.57865905761719
LBV127	-150.71282958984375	422.33624267578125	-407.33819580078125	8.971487998962402	-10.471076965332031	19.290874481201172	-19.92133903503418	-26.3018856048584	-11.720218658447266	-91.56513214111328
LBV130	-145.03463745117188	404.5171203613281	-371.36761474609375	11.211174011230469	4.36012077331543	0.4746078550815582	11.482419967651367	-31.930740356445312	22.281099319458008	71.32032012939453
LBV132	-152.03219604492188	367.56072998046875	-323.2041931152344	12.528823852539062	-10.769331932067871	-8.946932792663574	-0.27472156286239624	-36.40580749511719	32.82438278198242	25.972721099853516
LBV133	-153.4568634033203	420.5015563964844	-407.3672180175781	7.76703405380249	-11.324234962463379	11.106677055358887	-9.095503807067871	30.85920524597168	11.687548637390137	22.446081161499023
LBV134	-156.9283905029297	407.0146484375	-385.429443359375	18.426177978515625	-2.917783498764038	14.534478187561035	13.134271621704102	10.761683464050293	10.213935852050781	-8.662291526794434
AA0040-C	253.34226989746094	-63.48488235473633	-5.264055252075195	79.42991638183594	108.26925659179688	1.9399701356887817	-0.9572845101356506	-1.846778392791748	-4.712688446044922	-3.648451805114746
AA0041-C	256.8477478027344	-58.64185333251953	-14.933062553405762	80.52146911621094	115.72764587402344	5.625968933105469	5.034909725189209	-6.868219375610352	-8.291288375854492	-3.6089491844177246
AA0042-C	261.54388427734375	-64.71063995361328	-12.823942184448242	120.45985412597656	122.79630279541016	1.3308097124099731	-18.72249412536621	1.482340931892395	-10.899682998657227	0.8401109576225281
AA0043-C	253.64303588867188	-55.63440704345703	-15.127975463867188	98.32865142822266	125.21778869628906	2.569018840789795	-5.24204683303833	-6.088708877563477	-0.5569121837615967	-4.968830585479736
AA0044-C	252.9121551513672	-67.80484771728516	-6.7816572189331055	107.91809844970703	111.17972564697266	1.2089896202087402	2.306410074234009	0.08967233449220657	-3.819711446762085	-9.400289535522461
AA0049-C	253.38720703125	-54.646087646484375	-20.435941696166992	78.92153930664062	135.33546447753906	5.761866092681885	-5.393945693969727	-10.217920303344727	-12.834311485290527	1.0422533750534058
AA0051-C	253.99302673339844	-60.597164154052734	-12.952869415283203	101.6467056274414	105.99494171142578	4.184624195098877	3.847489356994629	-3.029783248901367	-2.1373496055603027	-6.125270843505859
AA0052-C	255.96974182128906	-62.26591491699219	-9.382944107055664	109.16799926757812	95.75696563720703	3.1290066242218018	-10.801175117492676	-4.541276454925537	-1.4150419235229492	-0.3855738639831543
AA0053-C	258.4924011230469	-57.32069778442383	-14.763419151306152	97.00214385986328	95.38568115234375	-1.8873538970947266	1.4868674278259277	-9.118422508239746	-2.076941728591919	2.3955788612365723
AA0054-C	258.6134033203125	-63.49480056762695	-11.989157676696777	111.87969207763672	111.27017974853516	2.109581232070923	5.1487135887146	-5.246716499328613	-7.538656711578369	-14.300701141357422
AA0055-C	254.08985900878906	-54.50466537475586	-18.185514450073242	107.69623565673828	134.95370483398438	0.7835047841072083	-0.2133052796125412	-4.618096351623535	-3.0015668869018555	-15.722787857055664
AA0056-C	257.9265441894531	-59.05824661254883	-9.764238357543945	112.94499969482422	115.7462158203125	4.083354949951172	-3.396071195602417	-7.387698173522949	-10.691898345947266	-5.758474349975586
AA0063-C	256.07666015625	-63.713844299316406	-9.612390518188477	77.83859252929688	132.4581298828125	0.0235715564340353	6.991807460784912	-10.28958511352539	-8.028579711914062	-11.693364143371582
AA0064-C	252.5845489501953	-59.09272384643555	-10.954601287841797	88.5029296875	111.35281372070312	1.3122020959854126	-2.4590344429016113	-4.921458721160889	-8.46787166595459	-9.234888076782227
AA0066-C	256.5936584472656	-69.50517272949219	-8.020933151245117	102.439208984375	104.84603118896484	-1.681504249572754	-3.510770082473755	-6.434060573577881	-9.933114051818848	-12.103242874145508
AA0067-C	255.2615966796875	-65.79683685302734	-11.404773712158203	116.8189697265625	98.42262268066406	-0.06586025655269623	12.808666229248047	6.876818656921387	-10.48780345916748	-5.955498695373535
AA0068-C	254.01866149902344	-63.8357048034668	-12.035483360290527	101.56200408935547	106.33740234375	-0.1688881367444992	4.521066188812256	1.412398099899292	-11.433672904968262	-8.024456024169922
AA0073-C	257.1568603515625	-58.46916198730469	-15.82540512084961	83.96261596679688	153.3040313720703	3.152306079864502	3.6629183292388916	-1.3725231885910034	-3.5240135192871094	-8.306551933288574
AA0074-C	251.53982543945312	-54.153594970703125	-19.380128860473633	86.11837768554688	161.88836669921875	3.957102060317993	11.648300170898438	-8.556475639343262	-3.03068470954895	-9.03244686126709
AA0075-C	257.0822448730469	-59.263065338134766	-14.1592378616333	86.79096221923828	94.42449951171875	0.7424111366271973	5.929152965545654	-9.397387504577637	-5.566475868225098	-9.102045059204102
AA0076-C	256.1976013183594	-60.41897964477539	-13.891413688659668	94.3694839477539	128.8994598388672	1.6478404998779297	11.234375	-4.4810991287231445	-2.91135835647583	-6.751021862030029
AA0077-C	253.84568786621094	-60.37264633178711	-7.816045761108398	111.17288970947266	98.24120330810547	-0.7544788122177124	-2.7043111324310303	-5.361816883087158	1.5195832252502441	-4.6739678382873535
AA0080-C	255.29222106933594	-63.00035095214844	-11.605596542358398	120.6444091796875	109.41212463378906	-0.8248262405395508	-0.4002251625061035	-7.379723072052002	-10.605491638183594	-7.36003303527832
AA0087-C	252.6144561767578	-58.65279769897461	-12.976548194885254	75.643310546875	115.89753723144531	-3.7518205642700195	6.144081115722656	-8.397083282470703	-3.882681369781494	-15.733881950378418
AA0088-C	253.5631866455078	-64.93154907226562	-6.674052715301514	108.50991821289062	100.9853286743164	-0.45178723335266113	5.501669406890869	-2.6657602787017822	-0.2558882236480713	-16.625381469726562
AA0089-C	253.84283447265625	-63.86491012573242	-6.307723522186279	111.87336730957031	105.29706573486328	1.5180385112762451	0.7484484910964966	-3.5429201126098633	0.7504785060882568	-10.204902648925781
AA0090-C	258.3514099121094	-60.182003021240234	-11.528519630432129	80.77616119384766	109.53765106201172	3.57366943359375	-6.0034661293029785	-6.646826267242432	-2.4771859645843506	-7.813019275665283
AA0091-C	254.00611877441406	-62.265804290771484	-12.080615997314453	113.6131362915039	104.83888244628906	-3.302089214324951	4.18206262588501	0.5647302269935608	-6.756710052490234	-5.9038872718811035
AA0097-C	253.09271240234375	-60.01302719116211	-10.98442268371582	72.64090728759766	180.1356201171875	0.47258615493774414	7.834347724914551	-9.881002426147461	1.0396217107772827	-10.28564453125
AA0098-C	255.35902404785156	-63.709564208984375	-12.960930824279785	133.2748260498047	427.0841979980469	-7.748384952545166	-87.38048553466797	9.155603408813477	18.158998489379883	31.62565803527832
AA0099-C	257.27398681640625	-66.38208770751953	-5.3989644050598145	110.88099670410156	96.78091430664062	-2.8172574043273926	-7.8832292556762695	-1.7127678394317627	-1.0724728107452393	-12.088675498962402
AA0100-C	254.6051025390625	-61.15985107421875	-6.134489059448242	112.64693450927734	130.22222900390625	3.9932873249053955	5.921916484832764	-6.990769863128662	-4.519330024719238	-14.04668140411377
AA0101-C	252.7201690673828	-54.95610046386719	-15.991052627563477	96.84738159179688	103.71611785888672	4.429917335510254	7.594281196594238	-6.499286651611328	-13.696052551269531	-9.018494606018066
AA0102-C	253.1074676513672	-62.16044616699219	-13.459737777709961	85.24771118164062	128.25209045410156	0.7457197904586792	5.486532688140869	-3.0235259532928467	-7.466285705566406	0.07025004178285599
AA0103-C	253.45162963867188	-55.59086990356445	-18.67745018005371	132.9108123779297	165.002197265625	-4.96627140045166	-18.785736083984375	0.004008757881820202	-10.782238960266113	-8.187919616699219
AA0104-C	256.10821533203125	-64.21308135986328	-10.478355407714844	90.14215087890625	84.33845520019531	1.7296024560928345	-1.9881670475006104	-12.127519607543945	-3.7016091346740723	-8.539430618286133
AA0107-C	254.55894470214844	-62.902217864990234	-3.784390926361084	113.54911804199219	105.03214263916016	-5.036584854125977	-11.800199508666992	-5.835500240325928	-4.469099998474121	-2.2238242626190186
AA0109-C	249.41175842285156	-50.15236282348633	-25.07036781311035	61.39099884033203	167.36407470703125	6.8658623695373535	-0.6918089389801025	-12.15229606628418	-5.012538433074951	-14.648635864257812
AA0110-C	266.0073547363281	-66.2804183959961	-25.088573455810547	196.84349060058594	656.8673095703125	-19.87078094482422	-168.54409790039062	23.81653594970703	42.21152114868164	60.529232025146484
AA0111-C	252.00103759765625	-67.4810562133789	-4.491890907287598	108.46410369873047	91.06721496582031	2.2629330158233643	5.231893062591553	-11.584050178527832	-2.668654203414917	-7.2937331199646
AA0113-C	255.60385131835938	-57.266170501708984	-13.629741668701172	104.94636535644531	127.23998260498047	2.7943074703216553	-6.838136196136475	-3.713514566421509	-7.08391809463501	-6.1621479988098145
AA0114-C	254.875732421875	-59.33128356933594	-10.183443069458008	106.14409637451172	109.5092544555664	-1.1539766788482666	-2.2102012634277344	-5.317824840545654	-3.8449153900146484	-3.399801731109619
AA0115-C	251.12493896484375	-59.62977981567383	-6.370764255523682	115.5205078125	112.404541015625	5.200892925262451	10.547682762145996	-6.795947074890137	-0.8078582286834717	-3.4985036849975586
AA0116-C	257.1741027832031	-68.93852233886719	-7.841028690338135	91.82381439208984	108.8260498046875	-1.4402645826339722	3.5825555324554443	-0.5468584299087524	-8.911144256591797	-5.73625373840332
AA0123-C	247.9910430908203	-66.94229888916016	-6.981420040130615	81.86235809326172	70.7015609741211	-0.3538389503955841	-8.744608879089355	-5.740536212921143	-5.841162204742432	-4.5598955154418945
AA0124-C	253.08251953125	-69.52804565429688	-3.460861921310425	94.42789459228516	115.29104614257812	0.7167019248008728	-2.3581249713897705	-7.114223480224609	-4.638825416564941	-10.55960750579834
AA0125-C	257.8446350097656	-67.43714904785156	-7.1609206199646	116.77063751220703	74.77191162109375	2.722306251525879	1.8721861839294434	-3.843104362487793	-5.413450717926025	-9.414061546325684
AA0127-C	255.0983428955078	-62.215877532958984	-10.34001350402832	131.40769958496094	126.78763580322266	1.9722990989685059	-14.547871589660645	-7.7021260261535645	-7.531343460083008	-9.311864852905273
AA0132-C	250.9871368408203	-63.14189529418945	-7.8278398513793945	85.00111389160156	170.2848663330078	0.04994353652000427	-16.023834228515625	-4.716313362121582	-4.3780517578125	-16.12627601623535
AA0134-C	254.4711151123047	-59.58430862426758	-12.576852798461914	82.93993377685547	136.227783203125	1.2888251543045044	5.877773761749268	-3.1736323833465576	-0.6882976293563843	-9.126242637634277
AA0135-C	247.03492736816406	-56.107521057128906	-5.39377498626709	97.5815658569336	110.75137329101562	2.7507553100585938	-3.5862154960632324	-8.716059684753418	1.7812321186065674	-8.271086692810059
AA0136-C	258.122802734375	-70.52864074707031	-5.652205944061279	110.21337127685547	117.44236755371094	2.6624083518981934	-18.406211853027344	-9.400947570800781	4.0763115882873535	-9.126798629760742
AA0139-C	255.5438995361328	-60.69430923461914	-15.266965866088867	107.55915069580078	140.23910522460938	-7.005871772766113	7.143396854400635	-0.7251671552658081	-1.680762767791748	0.21504239737987518
AA0140-C	265.81207275390625	-64.5080337524414	-25.72357177734375	195.57460021972656	722.976318359375	-19.45856285095215	-180.37925720214844	26.35344696044922	43.8687629699707	66.65827178955078
AA0141-C	252.67942810058594	-59.43247985839844	-11.809394836425781	76.63558959960938	123.44044494628906	0.5760420560836792	2.3623082637786865	-11.254204750061035	-5.996869087219238	-2.274392604827881
AB0087-C	224.57223510742188	-43.32908248901367	-1.7068699598312378	-189.9925537109375	-3.097750425338745	1.3231098651885986	0.40755996108055115	-3.9881961345672607	-3.4465367794036865	1.6969722509384155
AB0088-C	227.73019409179688	-42.454769134521484	-14.956143379211426	-201.20472717285156	27.302839279174805	-0.9480888247489929	-4.32465934753418	-0.4209434688091278	6.96901273727417	-5.303524017333984
AB0089-C	226.5713653564453	-44.546241760253906	-5.522947311401367	-196.27557373046875	-0.9367186427116394	-6.636376857757568	-8.107421875	1.2700313329696655	7.538569927215576	-0.33504045009613037
AB0090-C	228.32737731933594	-45.62022399902344	1.964392066001892	-180.35617065429688	-3.991503953933716	-0.617597758769989	-17.190109252929688	2.9491827487945557	2.4764890670776367	2.1744041442871094
AB0091-C	228.09156799316406	-48.270503997802734	-3.999840497970581	-183.00106811523438	5.2269134521484375	-2.458372116088867	7.384036540985107	-0.9697338342666626	1.7085820436477661	9.606497764587402
AB0092-C	227.60215759277344	-42.74195098876953	-1.8243608474731445	-185.92088317871094	22.78325843811035	4.276942253112793	0.6869841814041138	-3.425626039505005	-0.4540383219718933	2.7974798679351807
AB0094-C	225.86013793945312	-39.384883880615234	-10.906877517700195	-189.04843139648438	26.689054489135742	-1.7727144956588745	1.7441084384918213	-5.646507740020752	-1.7424677610397339	-5.475397109985352
AB0095-C	228.29962158203125	-38.110172271728516	-7.843994617462158	-196.51393127441406	27.315391540527344	0.4222414791584015	2.5524520874023438	-1.6184608936309814	-0.2774536907672882	-1.5376713275909424
AB0097-C	221.4801788330078	-40.99319839477539	-5.448464393615723	-166.7432403564453	-0.5831213593482971	2.922004461288452	8.005792617797852	1.8478447198867798	-1.2684804201126099	-1.4642165899276733
AB0098-C	226.27862548828125	-44.21257019042969	-0.5013967156410217	-177.3421630859375	-8.846805572509766	-2.3014395236968994	-11.124197006225586	-6.416306018829346	5.767273426055908	-2.3420565128326416
AB0099-C	227.78659057617188	-44.85028076171875	-7.978161334991455	-189.85118103027344	15.633481979370117	2.0397157669067383	1.6924822330474854	5.122487545013428	1.3553900718688965	-0.5100822448730469
AB0100-C	226.44444274902344	-42.574256896972656	-7.4878387451171875	-183.01182556152344	17.743799209594727	-0.8909978270530701	-3.7592697143554688	-3.5758368968963623	-5.694411754608154	6.355315685272217
AB0101-C	220.52969360351562	-36.32344436645508	-5.654047966003418	-193.81060791015625	22.24976921081543	-3.8999569416046143	-15.422266006469727	-7.9756550788879395	3.086099863052368	-4.710743427276611
AB0109-C	222.68853759765625	-41.660919189453125	-5.668206214904785	-197.4236297607422	9.396804809570312	1.3001683950424194	-2.4406936168670654	8.254861831665039	-3.7085089683532715	4.22787618637085
AB0110-C	230.55181884765625	-47.85450744628906	-11.222344398498535	-186.17172241210938	1.1280903816223145	-0.375668466091156	-4.478215217590332	2.3889172077178955	-2.411698818206787	-1.0647636651992798
AB0111-C	222.26515197753906	-37.165748596191406	0.7204943895339966	-192.1521453857422	10.494379043579102	-8.057985305786133	-2.7322542667388916	3.4813549518585205	-0.5577952861785889	0.8037382364273071
AB0112-C	224.93617248535156	-41.852317810058594	-9.217865943908691	-207.9127960205078	14.453303337097168	4.432071685791016	-5.620412826538086	-3.072521448135376	-2.066864490509033	-7.08894157409668
AB0113-C	230.30923461914062	-41.97397994995117	-10.21911907196045	-142.7528076171875	6.7076616287231445	-0.32569751143455505	-13.980381965637207	-1.47022545337677	1.0457476377487183	-7.6254167556762695
AB0114-C	226.1618194580078	-42.56959533691406	-6.5829877853393555	-204.9861602783203	14.048247337341309	3.541889190673828	-1.682530403137207	-8.30951976776123	3.5550928115844727	-4.539413928985596
AB0115-C	230.39956665039062	-44.803592681884766	-12.95943832397461	-196.47691345214844	12.566414833068848	-0.4596240818500519	-4.137380599975586	-1.1155962944030762	1.7703405618667603	0.4110659062862396
AB0122-C	224.90858459472656	-37.50371551513672	-7.220308303833008	-189.5164337158203	16.923795700073242	2.1360294818878174	-9.429320335388184	3.547985076904297	-0.12029624730348587	-2.284430503845215
AB0123-C	225.28463745117188	-35.252803802490234	-9.7207612991333	-197.20535278320312	12.104268074035645	-7.067775249481201	4.072857856750488	-7.696214199066162	-2.219186544418335	6.59938383102417
AB0124-C	225.1212615966797	-47.843631744384766	0.02959338203072548	-186.80174255371094	-7.327566623687744	3.857778310775757	-5.359897136688232	4.7351484298706055	-1.6237705945968628	-0.809085488319397
AB0137-C	229.2488555908203	-39.48981475830078	-7.911999225616455	-168.57420349121094	25.716121673583984	-3.052856922149658	9.578731536865234	4.815004825592041	-4.6311211585998535	-1.4779831171035767
AB0138-C	228.7466583251953	-39.93370819091797	-11.233232498168945	-186.97482299804688	10.03490161895752	-2.734147548675537	-2.2675974369049072	3.2456424236297607	3.5218148231506348	3.2624640464782715
AB0139-C	229.02752685546875	-36.104915618896484	-14.345450401306152	-180.7082061767578	22.145217895507812	0.41909247636795044	-19.056093215942383	1.028133511543274	5.481287956237793	-7.158322334289551
AB0140-C	227.98167419433594	-45.174339294433594	-2.7885754108428955	-173.06729125976562	-11.010024070739746	-1.7231776714324951	-10.191130638122559	5.842432498931885	-6.7286458015441895	1.830480694770813
AB0142-C	222.17013549804688	-46.746063232421875	-4.384379863739014	-182.526611328125	10.292791366577148	4.403809070587158	10.9822416305542	-3.2407968044281006	2.8898303508758545	-0.5914665460586548
AB0181-C	231.3599853515625	-45.75569152832031	-8.57961654663086	-142.28900146484375	2.231274127960205	-8.575756072998047	3.8340964317321777	3.1834611892700195	-3.814039707183838	0.5265753269195557
AB0182-C	227.66494750976562	-36.1123046875	-13.85697078704834	-190.92950439453125	28.159236907958984	-1.256686806678772	-3.0395514965057373	-5.955282211303711	3.16464900970459	5.343844413757324
AB0183-C	225.33529663085938	-47.61796569824219	0.17895479500293732	-184.52008056640625	-2.4003570079803467	-3.9919774532318115	2.1624596118927	2.0202536582946777	4.915186882019043	2.7600314617156982
AB0184-C	227.313232421875	-42.191036224365234	-5.535828113555908	-196.48129272460938	9.016003608703613	-0.2944149971008301	7.294956684112549	-0.4533385634422302	-4.6846160888671875	-6.891913890838623
AB0185-C	222.8226776123047	-39.44459915161133	-5.532143592834473	-194.7208709716797	28.12360954284668	-2.7311718463897705	-1.679871678352356	-7.978928089141846	3.6593403816223145	-1.6237775087356567
AB0186-C	227.0364990234375	-44.152286529541016	-3.6662256717681885	-186.17523193359375	14.040183067321777	1.5177116394042969	7.404531955718994	-0.03904760628938675	1.743133544921875	0.7598798274993896
AB0187-C	226.1929168701172	-49.886573791503906	-2.181161642074585	-193.44456481933594	-14.400033950805664	2.0801706314086914	9.125200271606445	-5.149439334869385	3.8393094539642334	-3.0317180156707764
AB0188-C	224.0983428955078	-39.05449676513672	-2.029059648513794	-178.556640625	20.550355911254883	0.0074770161882042885	-2.7568438053131104	1.9349929094314575	-2.3856358528137207	-5.136837482452393
AB0189-C	225.41055297851562	-43.48786163330078	-4.40687894821167	-204.2781982421875	19.06014633178711	-3.3613545894622803	0.7103551626205444	-5.873631000518799	-3.9775750637054443	8.632183074951172
AB0190-C	228.39767456054688	-48.539794921875	-0.05373600870370865	-168.2793731689453	-16.65888214111328	-0.5554304122924805	5.35359525680542	-0.9203659296035767	-2.2477285861968994	-0.8262820839881897
AB0191-C	230.31927490234375	-43.59405517578125	-8.693395614624023	-190.6750946044922	12.071504592895508	-3.2449982166290283	-3.532062292098999	-7.734314441680908	2.0677332878112793	1.405816674232483
AB0192-C	228.354736328125	-40.25248718261719	-3.3276584148406982	-201.25599670410156	9.943913459777832	-1.833893060684204	-6.542953968048096	-0.08872860670089722	3.42638897895813	2.7408037185668945
AB0195-C	224.51197814941406	-38.98551940917969	-5.663612365722656	-191.98678588867188	0.4136432707309723	-4.351038455963135	-3.432112455368042	11.650581359863281	-3.1220483779907227	-8.67801284790039
AB0196-C	223.1919403076172	-43.895477294921875	1.0822601318359375	-190.50160217285156	4.135326862335205	4.048836708068848	0.514872133731842	-4.433591842651367	0.5835298895835876	-0.1471000611782074
AB0204-C	230.6641845703125	-44.03176498413086	-8.471769332885742	-206.1378631591797	20.181236267089844	-2.0582637786865234	6.086149215698242	-0.17735379934310913	7.426652908325195	6.469033718109131
AB0209-C	225.22425842285156	-43.889827728271484	-2.1769423484802246	-196.17880249023438	10.53020191192627	1.5263921022415161	-7.557966709136963	8.45263957977295	1.198937177658081	7.658019065856934
AB0210-C	234.3289337158203	-49.89054489135742	-4.430190563201904	-147.59242248535156	-9.662757873535156	-2.311922788619995	17.151935577392578	4.598697662353516	1.013100504875183	8.14792251586914
AB0212-C	223.9662322998047	-46.81198501586914	-0.995869517326355	-171.2766571044922	-0.18955166637897491	6.094910621643066	7.353839874267578	-2.099959373474121	-3.876614809036255	-9.186436653137207
AB0213-C	223.18927001953125	-45.722991943359375	-3.0000221729278564	-195.23252868652344	3.7946197986602783	2.8809287548065186	2.518847703933716	-1.2757676839828491	0.5686168074607849	-1.6498466730117798
AB0215-C	227.24305725097656	-49.38376235961914	-5.587696075439453	-192.1050567626953	1.8970142602920532	2.113081693649292	13.081552505493164	-1.8159103393554688	-4.593791961669922	0.5636314749717712
AB0219-C	229.95909118652344	-44.91532897949219	-9.530267715454102	-157.44583129882812	-7.898682117462158	3.700802803039551	0.01104101911187172	-1.6585874557495117	4.581799507141113	-1.041872262954712
AB0221-C	226.54429626464844	-43.93476486206055	-10.430012702941895	-190.57839965820312	25.81553840637207	1.2305811643600464	7.718608856201172	-1.7348766326904297	0.6073819994926453	-4.263731002807617
AB0222-C	223.65554809570312	-44.417259216308594	-3.043808698654175	-185.62673950195312	4.5129899978637695	1.5392353534698486	-2.4087674617767334	0.44772017002105713	0.37367239594459534	1.384488582611084
AB0223-C	233.49966430664062	-47.77146530151367	-4.447089672088623	-166.83779907226562	-10.064377784729004	-3.065443754196167	11.94070053100586	1.0877035856246948	-6.407003879547119	-5.016414642333984
AB0224-C	230.6918182373047	-34.89179992675781	-15.539359092712402	-174.5157012939453	28.501544952392578	1.348631739616394	14.068798065185547	-3.7371063232421875	-0.8667130470275879	-0.8211732506752014
AB0226-C	228.49868774414062	-45.641239166259766	-0.8081716895103455	-185.61231994628906	-6.735825061798096	2.577892303466797	3.7037975788116455	-5.961512565612793	-8.470721244812012	2.530848979949951
AB0227-C	229.24905395507812	-46.241676330566406	-0.8466119170188904	-176.8686065673828	-5.0046257972717285	-1.8624584674835205	3.374464511871338	1.2106473445892334	-6.710975170135498	-6.266037464141846
AB0229-C	228.1558074951172	-47.154502868652344	-0.23185938596725464	-199.50245666503906	-3.031789779663086	-1.7513556480407715	-2.779287576675415	-2.7929468154907227	-1.275498390197754	4.038601875305176
AB0234-C	222.94949340820312	-43.84389877319336	0.4634378254413605	-183.3129119873047	-0.5400599241256714	2.111802339553833	9.693827629089355	3.2666966915130615	-0.11417791992425919	-3.4438328742980957
AB0237-C	227.28123474121094	-42.847434997558594	-7.020895481109619	-162.98394775390625	4.051527976989746	-1.120030164718628	10.956890106201172	-3.23490309715271	0.3157873749732971	0.2953115999698639
AB0240-C	226.70982360839844	-41.55409240722656	-4.27979850769043	-201.6196746826172	7.830239772796631	1.6061091423034668	-2.7970807552337646	-3.127357006072998	5.0556440353393555	-1.6951498985290527
AB0242-C	227.63514709472656	-44.045310974121094	-5.900092601776123	-211.31460571289062	9.925894737243652	-3.183926582336426	-4.726963996887207	-2.1739304065704346	-4.725573539733887	-1.4294499158859253
AB0243-C	230.76475524902344	-36.791358947753906	-13.741966247558594	-183.0	9.809175491333008	-3.9302523136138916	-7.1680006980896	2.954927444458008	0.8427225947380066	-5.069667339324951
AB0246-C	227.6951141357422	-41.160377502441406	-5.047932147979736	-193.9595184326172	11.588203430175781	-1.4091275930404663	-7.19409704208374	2.015944719314575	4.086420059204102	-0.3476661741733551
AB0247-C	223.14637756347656	-39.827823638916016	-0.6675786972045898	-157.36341857910156	6.647426128387451	0.07699242234230042	9.074790000915527	1.266723394393921	-5.961978912353516	-5.783656597137451
AB0248-C	231.57179260253906	-37.544795989990234	-15.372339248657227	-194.79483032226562	24.884157180786133	1.825238823890686	-16.11775779724121	-1.4350661039352417	-0.09014318138360977	0.8392153978347778
AB0249-C	221.03842163085938	-32.80306625366211	-7.0859599113464355	-191.55575561523438	26.619924545288086	8.626091003417969	2.7576868534088135	-5.7361369132995605	-8.027440071105957	5.302938938140869
AB0250-C	225.24757385253906	-38.60572052001953	-5.184688091278076	-194.54611206054688	22.201454162597656	-0.2857663631439209	-2.3792524337768555	2.8345770835876465	-5.400938510894775	9.752513885498047
AB0257-C	224.40231323242188	-41.95468521118164	-2.9820351600646973	-185.284423828125	4.509729385375977	2.7492053508758545	-0.9505509734153748	6.007162570953369	-1.61580228805542	2.7910993099212646
AB0258-C	232.9681396484375	-47.91632843017578	-10.117718696594238	-123.96318817138672	-2.7271511554718018	-1.8220782279968262	4.855473041534424	-4.9352617263793945	-2.884779691696167	-5.185206890106201
AB0262-C	224.8758087158203	-39.542327880859375	-5.5624165534973145	-180.6410369873047	0.6732528209686279	-2.455626964569092	-20.098419189453125	0.8508926630020142	2.6392910480499268	5.085817813873291
AB0263-C	227.1322479248047	-37.024810791015625	-16.706377029418945	-201.5395965576172	34.02655029296875	-3.0063421726226807	0.027774980291724205	1.501170039176941	-4.394025802612305	-3.2392876148223877
AB0266-C	230.12991333007812	-40.157569885253906	-17.809776306152344	-182.99676513671875	40.310550689697266	-1.64607572555542	-2.9984681606292725	-3.961007595062256	-2.5720412731170654	0.9031088352203369
AB0267-C	228.80813598632812	-48.543243408203125	-7.17280387878418	-189.6135711669922	-3.559366226196289	0.6795174479484558	7.526156425476074	-5.36459493637085	3.72562313079834	-4.214995861053467
AB0276-C	219.6489715576172	-37.52151107788086	-2.1623449325561523	-193.32699584960938	0.2578299641609192	3.5433156490325928	-16.77959632873535	-0.15998288989067078	0.2024640291929245	7.675591468811035
AB0279-C	235.26751708984375	-46.95354461669922	-6.204274654388428	-154.55661010742188	-2.120675802230835	2.7318854331970215	20.08060073852539	-0.49260446429252625	1.4949408769607544	-1.3051483631134033
AB0282-C	230.88868713378906	-42.86672592163086	-8.179795265197754	-173.71885681152344	2.8499326705932617	1.0280128717422485	22.53280258178711	-0.8609245419502258	0.048024825751781464	-11.63469409942627
AR0001-C	-522.1419677734375	-173.5995635986328	-17.0813045501709	-0.47479867935180664	4.5673112869262695	1086.91796875	-72.18879699707031	20.44779396057129	-197.31980895996094	-13.129578590393066
AR0007-C	-525.172119140625	-173.4120330810547	-16.59088897705078	-1.5791836977005005	0.9281848073005676	-21.52391815185547	-0.8869950175285339	8.699990272521973	16.080751419067383	-3.9767684936523438
AR0008-C	-526.9900512695312	-175.05226135253906	-17.620790481567383	0.803321897983551	4.087090015411377	1081.886474609375	-71.67172241210938	20.446969985961914	-198.7578887939453	-13.304596900939941
AR0009-C	-519.5286865234375	-175.194091796875	-26.48552131652832	4.848910331726074	-1.3365963697433472	-21.363784790039062	0.1160283237695694	6.095877170562744	29.452774047851562	12.09703254699707
AR0010-C	-514.8925170898438	-160.16189575195312	-13.777018547058105	2.697342872619629	-3.052967071533203	-26.638328552246094	0.9229989647865295	20.824644088745117	88.48534393310547	8.59521484375
AR0011-C	-520.8070678710938	-170.84732055664062	-14.336880683898926	1.2524240016937256	2.517786979675293	10.295488357543945	0.04767410084605217	2.5041263103485107	-50.428611755371094	-15.198953628540039
AR0012-C	-514.8652954101562	-179.6687469482422	-17.06642723083496	-1.490791916847229	0.28796377778053284	-72.30364990234375	-6.460283279418945	-14.329278945922852	-24.261516571044922	-9.040091514587402
AR0013-C	-518.0818481445312	-161.98973083496094	-12.027456283569336	-2.6571288108825684	1.3311190605163574	-30.50111961364746	3.5424869060516357	-2.4582912921905518	-4.450023174285889	-2.8018808364868164
AR0014-C	-517.7103271484375	-169.73068237304688	-10.817694664001465	2.275691032409668	2.3409903049468994	25.11342430114746	-2.239443778991699	8.315190315246582	62.35145950317383	-1.4801459312438965
AR0015-C	-514.5582275390625	-169.48306274414062	-22.058927536010742	2.8449699878692627	-1.6148539781570435	-17.27030372619629	5.423594951629639	45.061378479003906	181.55946350097656	9.048457145690918
AR0016-C	-524.7780151367188	-176.24147033691406	-26.641006469726562	0.8562766909599304	-1.4428389072418213	-47.472198486328125	10.879096984863281	52.761322021484375	329.32440185546875	7.462114334106445
AR0017-C	-514.443359375	-172.44091796875	-11.128877639770508	1.9783785343170166	0.6613664627075195	-63.83832550048828	0.6531100273132324	20.66089630126953	123.35281372070312	5.587838649749756
AR0018-C	-511.7689514160156	-170.05072021484375	-17.650182723999023	0.24050970375537872	-4.5354461669921875	-28.699722290039062	11.375700950622559	62.6947021484375	363.004150390625	8.166729927062988
AR0019-C	-513.823974609375	-156.55572509765625	-23.866331100463867	3.5259463787078857	4.147898197174072	-60.50941467285156	5.0222296714782715	37.479827880859375	171.04190063476562	-12.278751373291016
AR0020-C	-509.2685546875	-156.69459533691406	-12.339012145996094	3.056001663208008	4.947131633758545	47.08543014526367	-2.16910719871521	5.82560920715332	-26.509170532226562	1.0373872518539429
AR0021-C	-516.0572509765625	-156.51168823242188	-25.04975700378418	-3.7186832427978516	15.83203125	4.027120590209961	-7.18944787979126	6.7821173667907715	18.22083854675293	-12.528721809387207
AR0022-C	-503.6439208984375	-151.42282104492188	-11.147977828979492	2.6821482181549072	-0.5878240466117859	-43.76433181762695	5.116736888885498	-10.511667251586914	-59.304466247558594	-16.548786163330078
AR0023-C	-505.427978515625	-156.02085876464844	-17.762191772460938	4.742523670196533	-4.676811218261719	3.0984718799591064	-3.66581130027771	4.223501682281494	64.3508071899414	8.165557861328125
AR0024-C	-513.547119140625	-155.60902404785156	-13.681371688842773	1.3159899711608887	4.268855094909668	-8.52668571472168	-0.8373287320137024	0.45807477831840515	-40.95180892944336	-5.264779090881348
AR0026-C	-512.6434326171875	-155.9438934326172	-8.289316177368164	3.7271454334259033	-0.9177964329719543	5.366296291351318	0.2362070381641388	-1.044388771057129	42.2668571472168	1.0320748090744019
AR0027-C	-510.0890197753906	-158.3238983154297	-9.29189682006836	3.431365966796875	1.4587171077728271	43.33200454711914	-2.1408803462982178	6.214320182800293	33.029476165771484	13.23964786529541
AR0034-C	-518.0181884765625	-155.12118530273438	-18.920700073242188	-0.29300808906555176	-3.489827871322632	-23.980247497558594	-0.22722101211547852	-3.5515968799591064	32.59035110473633	-7.12259578704834
AR0035-C	-518.6023559570312	-158.6866455078125	-15.721495628356934	2.9285683631896973	5.735121726989746	43.25315475463867	2.952939510345459	-3.4959001541137695	24.747268676757812	7.765033721923828
AR0036-C	-502.513427734375	-159.0972137451172	-9.63563346862793	2.785291910171509	-1.2213962078094482	-35.8099479675293	-3.943603038787842	-10.26297664642334	-19.397253036499023	-4.618432998657227
AR0038-C	-500.15692138671875	-151.78482055664062	-20.194440841674805	-0.4169664680957794	0.1258489191532135	-10.068426132202148	3.0036239624023438	-1.8539947271347046	19.393386840820312	-5.562203884124756
AR0040-C	-501.9767761230469	-153.0207977294922	-18.87950325012207	-0.42051488161087036	-6.921255588531494	-36.70410919189453	9.817728996276855	11.67845630645752	98.31714630126953	17.360939025878906
AR0042-C	-526.0540161132812	-175.21902465820312	-13.381397247314453	10.376304626464844	2.1334595680236816	-256.3997497558594	-9.046492576599121	-163.7656707763672	-897.7110595703125	-4.317703723907471
AR0043-C	-511.8100891113281	-157.94882202148438	-17.33686065673828	-1.1466562747955322	0.5872094035148621	-101.98634338378906	9.502034187316895	-12.744830131530762	-9.64822769165039	7.415276527404785
AR0044-C	-513.5812377929688	-173.30128479003906	-16.432466506958008	2.3655340671539307	-0.6056306958198547	32.40166091918945	4.6915059089660645	40.793331146240234	166.02105712890625	-5.472391128540039
AR0045-C	-512.9111328125	-157.64712524414062	-17.71463966369629	3.9260387420654297	-0.6234262585639954	-28.57472038269043	-3.1010475158691406	-16.02458953857422	-20.134109497070312	-13.908774375915527
AR0046-C	-513.7014770507812	-157.10659790039062	-12.583338737487793	2.3356478214263916	2.847365379333496	-8.289620399475098	1.769977331161499	0.112102210521698	53.227962493896484	-2.173151731491089
AR0047-C	-519.642578125	-166.51817321777344	-17.429195404052734	0.5000234842300415	8.11260986328125	-46.37168884277344	3.5821123123168945	-10.182525634765625	-35.297203063964844	-4.320019721984863
AR0048-C	-521.4783325195312	-160.3786163330078	-19.55385398864746	-1.5641590356826782	-3.3153786659240723	-44.800498962402344	3.122598171234131	-5.945495128631592	25.192340850830078	-0.0908593088388443
AR0049-C	-537.6195068359375	-192.64393615722656	-18.56970977783203	8.013980865478516	2.0295321941375732	-251.42684936523438	-9.40035629272461	-164.3587188720703	-893.406494140625	-6.466134071350098
AR0050-C	-525.3302612304688	-169.42312622070312	-19.847396850585938	0.20194199681282043	0.9753560423851013	-44.47513198852539	-3.2480521202087402	12.701581001281738	39.33344650268555	11.38477611541748
AR0051-C	-507.70477294921875	-152.482177734375	-15.1703462600708	3.796483278274536	2.044541120529175	22.040321350097656	-2.0417213439941406	-4.188533782958984	35.418426513671875	-9.407818794250488
AR0052-C	-509.54986572265625	-148.5016326904297	-11.99022102355957	-1.4911917448043823	-1.3428821563720703	27.624059677124023	8.241520881652832	-5.852845668792725	16.87502098083496	0.8232092261314392
AR0053-C	-517.918212890625	-174.70037841796875	-11.939997673034668	0.7461877465248108	-2.0888214111328125	-57.87478256225586	-1.4303938150405884	-10.87883186340332	-10.846553802490234	-15.400545120239258
AR0054-C	-513.0655517578125	-166.42755126953125	-18.524538040161133	0.521673321723938	-2.7604258060455322	5.159674644470215	-4.238122463226318	11.034140586853027	92.36942291259766	6.105177402496338
AR0057-C	-521.8064575195312	-168.43267822265625	-19.5200252532959	-1.9016532897949219	3.8601324558258057	-41.167510986328125	6.437230587005615	-2.5908071994781494	-28.083175659179688	-9.862692832946777
AR0059-C	-524.3831787109375	-174.2683563232422	-16.358816146850586	0.9359602928161621	4.4478020668029785	-19.91669464111328	1.755292296409607	-3.28197979927063	-17.00405502319336	-1.823162317276001
AR0060-C	-515.4064331054688	-165.07090759277344	-14.085041046142578	2.393578290939331	1.7877835035324097	-29.002513885498047	8.105596542358398	-3.8858437538146973	-9.636570930480957	1.1867761611938477
AR0061-C	-508.345947265625	-157.73133850097656	-12.29857063293457	3.8580129146575928	-2.664987802505493	-65.61383056640625	-0.36394068598747253	-8.125484466552734	-23.831863403320312	1.3281080722808838
AR0062-C	-515.7229614257812	-157.6856231689453	-15.123045921325684	-1.014527440071106	-2.0826964378356934	-62.451114654541016	3.245137929916382	-4.160520076751709	50.79887390136719	-3.116398811340332
AR0063-C	-501.93109130859375	-144.4032745361328	-12.469844818115234	2.2500383853912354	-0.6468510031700134	-43.82769775390625	5.708475112915039	0.6388140320777893	20.880678176879883	-3.7102303504943848
AR0064-C	-500.8114929199219	-156.67922973632812	-13.043383598327637	4.420497894287109	1.16373610496521	-42.10959243774414	-0.8132311701774597	0.43597614765167236	21.77676773071289	-8.21068000793457
AR0065-C	-503.4098205566406	-157.22647094726562	-16.436548233032227	-2.0203964710235596	1.950110673904419	-93.5782699584961	7.325748443603516	-16.342445373535156	25.78279685974121	-6.692668914794922
AR0066-C	-512.3709106445312	-164.1855926513672	-10.445934295654297	-1.0695964097976685	-1.3457199335098267	8.904496192932129	2.2980010509490967	-10.05059814453125	5.491269588470459	1.828726887702942
AR0069-C	-508.6661376953125	-159.32681274414062	-19.325403213500977	4.596895694732666	-1.9921164512634277	-7.006353855133057	3.516148090362549	1.9815852642059326	17.45342445373535	6.9646806716918945
AR0070-C	-504.7026062011719	-163.75392150878906	-10.777363777160645	-0.8265935778617859	2.2005066871643066	-41.35898208618164	-1.8052473068237305	25.262651443481445	43.24647521972656	-7.51475191116333
AR0071-C	-512.0352783203125	-152.6235809326172	-20.69902801513672	-1.5645123720169067	2.1642725467681885	-85.5280990600586	3.1361100673675537	6.607266902923584	77.67310333251953	-2.628087282180786
AR0072-C	-517.458740234375	-168.14291381835938	-19.84918212890625	0.12339035421609879	4.051009178161621	-28.303050994873047	15.385616302490234	63.733890533447266	272.4146423339844	63.66972732543945
AR0073-C	-529.3568725585938	-175.94979858398438	-19.6673526763916	-4.131543159484863	2.0586791038513184	-11.56722354888916	2.4467806816101074	-11.558910369873047	-57.388916015625	-3.9995195865631104
AR0074-C	-499.19549560546875	-146.9257354736328	-16.294464111328125	0.215448796749115	3.363525629043579	33.64384460449219	0.04995576664805412	11.79747200012207	-4.7394232749938965	1.68416428565979
AR0075-C	-511.7952880859375	-167.2119903564453	-20.211950302124023	-2.3142449855804443	-0.17198315262794495	-32.170894622802734	1.4731438159942627	1.5196549892425537	13.87282943725586	2.2898480892181396
AR0076-C	-512.876220703125	-160.86318969726562	-17.127241134643555	1.2951910495758057	1.9756840467453003	19.658279418945312	-4.211208820343018	-18.803972244262695	-62.877071380615234	-2.1183557510375977
AR0077-C	-508.72705078125	-163.74948120117188	-12.334287643432617	1.0293326377868652	3.0409605503082275	-90.42733764648438	8.30188274383545	-22.17547607421875	-81.14219665527344	-0.6699975728988647
AR0078-C	-494.0835876464844	-142.38302612304688	-15.67243480682373	0.4816158413887024	1.6437065601348877	-54.789310455322266	5.559713840484619	-14.830513000488281	-21.30690574645996	8.554859161376953
AR0079-C	-504.96917724609375	-158.3641815185547	-11.845444679260254	-0.19418857991695404	2.256114959716797	-34.57429122924805	2.32246470451355	-7.691415309906006	8.549570083618164	0.1380481868982315
AR0080-C	-514.6054077148438	-171.1221466064453	-19.625757217407227	0.2620680034160614	1.2548147439956665	-31.04640007019043	4.18331241607666	5.491479396820068	77.47147369384766	2.638625383377075
AR0081-C	-526.2205810546875	-169.08966064453125	-12.97649097442627	-1.1400429010391235	6.667142391204834	4.901913166046143	1.9635021686553955	8.433496475219727	25.633312225341797	-8.325448989868164
AR0082-C	-506.6159362792969	-153.17767333984375	-17.9425048828125	1.2496304512023926	-0.45336875319480896	-24.38153076171875	6.517495155334473	15.420892715454102	15.040245056152344	-8.101568222045898
AR0083-C	-508.9928894042969	-158.2517852783203	-13.60649299621582	5.281216144561768	0.6192222237586975	-48.092926025390625	0.2644159197807312	-3.2072887420654297	-3.1353073120117188	-5.667861461639404
AR0084-C	-508.03631591796875	-158.0198211669922	-19.532129287719727	0.21719181537628174	3.6996116638183594	-54.32061767578125	1.9715516567230225	4.575835704803467	-15.148970603942871	14.143354415893555
AR0085-C	-507.1440734863281	-157.5126953125	-15.142829895019531	-0.012923669070005417	-1.5739824771881104	-21.245010375976562	3.394026279449463	3.9800257682800293	15.89631462097168	8.00016975402832
AR0086-C	-515.66357421875	-160.60496520996094	-12.347293853759766	1.7954999208450317	-3.571025848388672	-26.3460693359375	0.4897307753562927	6.816547870635986	16.742591857910156	-9.543983459472656
AR0087-C	-513.4883422851562	-159.03897094726562	-9.953307151794434	2.2379119396209717	-0.3415071666240692	-6.881520748138428	-1.368149757385254	-6.080502986907959	-23.907167434692383	17.454246520996094
AR0088-C	-511.8743591308594	-163.54966735839844	-16.37848472595215	0.17325688898563385	-5.772306442260742	143.60369873046875	-8.60935115814209	6.214249134063721	-9.895155906677246	3.141488790512085
AR0089-C	-506.064697265625	-153.40565490722656	-17.93172836303711	0.9728152751922607	2.1141886711120605	-28.071331024169922	3.05820894241333	5.269331932067871	33.20362854003906	-8.171967506408691
AR0090-C	-516.587646484375	-169.79441833496094	-18.75071144104004	-4.231140613555908	-1.6274133920669556	-0.8020999431610107	1.7988601922988892	9.67004680633545	57.30488204956055	10.885669708251953
AR0092-C	-518.8358764648438	-165.3523406982422	-20.81707000732422	0.6498612761497498	2.9762139320373535	-12.174715995788574	13.79491901397705	68.52827453613281	262.85821533203125	62.26457595825195
AR0093-C	-511.9251403808594	-173.228271484375	-22.737035751342773	0.2880406677722931	-1.5934619903564453	-62.36479187011719	4.81514835357666	-6.156968593597412	13.88920783996582	2.139291763305664
AR0095-C	-514.828125	-171.85955810546875	-20.80145263671875	-0.05486429110169411	3.2637298107147217	-28.321386337280273	9.614554405212402	-6.464229583740234	0.7972196936607361	1.9953066110610962
AR0096-C	-517.8392333984375	-159.75051879882812	-16.236785888671875	-1.3066469430923462	0.34923824667930603	-47.94783020019531	6.303083419799805	-1.2494086027145386	6.644501209259033	-7.959160804748535
AR0097-C	-522.1248168945312	-167.2308349609375	-20.721416473388672	-2.606508493423462	-3.163278341293335	-48.76336669921875	-3.0245838165283203	0.10053656995296478	-18.765705108642578	-12.853134155273438
AR0098-C	-505.3760681152344	-152.3955535888672	-6.559264659881592	0.663887619972229	-0.7023285031318665	-43.29163360595703	-6.573581218719482	-36.07435989379883	-152.21478271484375	9.745903015136719
AR0099-C	-515.1444702148438	-168.89260864257812	-8.447684288024902	1.5247951745986938	5.1791768074035645	-64.86282348632812	-4.200809478759766	-2.823105573654175	-101.93571472167969	-8.506401062011719
AR0100-C	-512.4724731445312	-143.9808349609375	-14.191808700561523	4.928589344024658	-3.1770620346069336	37.585105895996094	-0.29125577211380005	-4.278112411499023	-8.117544174194336	-10.788729667663574
AV0038-C	252.91656494140625	-59.0213737487793	-7.522767066955566	13.000582695007324	-77.52848815917969	4.30880880355835	-3.074455738067627	-1.3953579664230347	-0.22941523790359497	7.330525875091553
AV0040-C	259.6611633300781	-71.26467895507812	-7.174989700317383	82.04380798339844	-265.03173828125	-57.810821533203125	-1012.2296142578125	-34.069522857666016	28.059415817260742	50.87232208251953
AV0042-C	256.7621765136719	-64.92398834228516	-6.503784656524658	70.27869415283203	-201.7686004638672	-52.46363830566406	-871.3985595703125	-33.40566635131836	25.457029342651367	47.188621520996094
AV0046-C	261.6582336425781	-72.2176513671875	-4.209592342376709	93.54478454589844	-227.31895446777344	-43.018306732177734	-737.742919921875	-24.042757034301758	21.281538009643555	36.0634765625
AY0006-C	256.4006652832031	-74.47413635253906	-7.117351531982422	130.5729522705078	-132.37744140625	-0.8113684058189392	36.78514862060547	7.0331854820251465	-1.266994833946228	-2.406520366668701
AY0007-C	262.62713623046875	-83.7266845703125	-8.93574333190918	86.94416046142578	-118.68180084228516	3.702892303466797	57.580509185791016	9.266749382019043	-3.1499764919281006	-4.068492889404297
AY0010-C	258.7809753417969	-76.1373291015625	-6.642877101898193	55.82986831665039	-89.03771209716797	2.4097957611083984	50.60114288330078	4.110074996948242	-2.03674578666687	6.23779821395874
AY0011-C	260.43743896484375	-74.7200698852539	-3.8824362754821777	84.76416015625	-111.92081451416016	4.668590068817139	50.16154861450195	-3.352598190307617	7.735630512237549	-3.9141740798950195
AY0012-C	264.5636901855469	-76.58778381347656	-6.800294399261475	115.14065551757812	-100.4789810180664	2.1275322437286377	13.532618522644043	-2.427178382873535	1.4472438097000122	0.11367267370223999
AY0013-C	263.13348388671875	-79.71019744873047	-8.299521446228027	113.22123718261719	-129.13113403320312	1.4492849111557007	31.12849235534668	9.46965503692627	2.386047124862671	6.553218841552734
AY0015-C	265.6433410644531	-76.47473907470703	-8.918356895446777	82.8270263671875	-111.22956848144531	1.9012848138809204	34.28230285644531	4.255673885345459	5.790648937225342	-2.5522003173828125
AY0016-C	261.5316162109375	-76.93824005126953	-10.84663200378418	133.4070281982422	-75.1407241821289	4.612321853637695	40.77378845214844	1.1395456790924072	0.3143720328807831	1.8563295602798462
AY0017-C	262.85406494140625	-76.8944320678711	-8.52181625366211	146.9816436767578	-99.94526672363281	3.8516592979431152	59.382896423339844	-7.827168941497803	3.540895938873291	0.4272713363170624
AY0018-C	262.7342529296875	-75.04015350341797	-9.26366901397705	112.04530334472656	-111.42164611816406	6.975337982177734	56.10056686401367	3.152326822280884	-1.2462276220321655	9.534649848937988
AY0019-C	263.8160400390625	-80.95865631103516	-10.443431854248047	117.23268127441406	-127.23676300048828	3.9404830932617188	78.29419708251953	3.3647279739379883	5.137612342834473	-8.579584121704102
AY0020-C	266.1853942871094	-79.37743377685547	-6.5434956550598145	111.14385986328125	-102.95640563964844	1.4828120470046997	41.92829513549805	-0.5725698471069336	4.685907363891602	1.5868099927902222
AY0021-C	258.9230651855469	-75.15602111816406	-11.538500785827637	73.86062622070312	-130.3149871826172	1.8274743556976318	29.96010398864746	4.492631912231445	1.0433087348937988	0.48145580291748047
AY0023-C	259.7708740234375	-75.35515594482422	-10.82379150390625	109.71387481689453	-119.68891143798828	-3.790022611618042	34.056983947753906	17.495044708251953	-0.11499331891536713	2.1518871784210205
AY0024-C	265.3965148925781	-78.97801971435547	-5.78341007232666	79.90357971191406	-129.4711151123047	7.287797451019287	74.37615966796875	3.8565664291381836	1.966914415359497	0.47800111770629883
AY0025-C	264.3069763183594	-78.10043334960938	-11.3753080368042	95.19417572021484	-89.84722900390625	3.188204288482666	43.77885055541992	-1.0789672136306763	1.857210636138916	5.227071285247803
AY0026-C	259.8398742675781	-74.14581298828125	-2.524526834487915	91.51443481445312	-114.95603942871094	0.9549397230148315	49.90949630737305	6.320652008056641	7.39320707321167	1.5389944314956665
AY0027-C	264.0318603515625	-79.45115661621094	-13.326800346374512	99.3369369506836	-117.44384002685547	-3.1053247451782227	41.050724029541016	-1.0269654989242554	-4.501453876495361	6.984401226043701
AY0029-C	262.706298828125	-80.54966735839844	-7.899325370788574	98.88870239257812	-142.1085968017578	-2.422250509262085	64.41120147705078	3.131199836730957	2.360459566116333	5.0306077003479
AY0031-C	260.1051025390625	-83.30301666259766	-8.919893264770508	69.0546875	-112.54926300048828	0.41784393787384033	25.063386917114258	1.2389612197875977	4.042023181915283	2.240682601928711
AY0032-C	259.775146484375	-71.11653137207031	-7.017144203186035	94.21629333496094	-104.94801330566406	4.303042411804199	32.39060592651367	4.442880630493164	-0.991614818572998	0.06506643444299698
AY0033-C	257.57806396484375	-76.82817840576172	-7.736983299255371	99.09392547607422	-105.4466323852539	4.599874019622803	20.464595794677734	5.275912761688232	0.24009791016578674	6.764078617095947
AY0034-C	259.635498046875	-74.09963989257812	-6.993603229522705	113.9337158203125	-97.62853240966797	-2.832355260848999	45.728450775146484	-1.0278104543685913	3.137082576751709	-1.5287259817123413
AY0035-C	262.7728576660156	-76.5578384399414	-4.087494373321533	90.24581146240234	-127.64459991455078	6.182467937469482	59.589866638183594	4.344003677368164	5.660017967224121	2.6420538425445557
AY0036-C	264.5652160644531	-74.05484771728516	-9.587594032287598	82.97705078125	-83.4555435180664	3.223456859588623	44.820953369140625	7.944909572601318	4.435234069824219	-1.0899001359939575
AY0038-C	259.0685119628906	-74.35047912597656	-8.583518981933594	100.49824523925781	-99.47259521484375	12.450664520263672	34.22797393798828	0.30775976181030273	0.15833812952041626	4.192518711090088
AY0039-C	257.1633605957031	-68.75507354736328	-10.21082878112793	104.81097412109375	-103.27944946289062	5.888922691345215	46.27882385253906	-3.4483089447021484	-3.44939923286438	2.8513426780700684
AY0040-C	255.03744506835938	-69.98271179199219	-2.5311942100524902	85.50337219238281	-95.68853759765625	3.6610586643218994	29.275056838989258	2.921259880065918	-3.8443706035614014	4.566209316253662
AY0041-C	264.4823913574219	-71.3306884765625	-16.070663452148438	103.482421875	-111.71845245361328	-0.17896977066993713	42.309837341308594	-1.8559458255767822	1.3960204124450684	11.44422435760498
AY0042-C	259.57568359375	-76.33272552490234	-3.858944892883301	91.8401107788086	-89.1905517578125	8.688454627990723	55.8284797668457	6.693694114685059	-5.078791618347168	-0.8610477447509766
AY0043-C	261.3306884765625	-74.36770629882812	-9.606654167175293	72.60826873779297	-89.8489990234375	5.101243495941162	49.77953338623047	-1.631150722503662	3.703700065612793	-1.4207721948623657
AY0045-C	262.06866455078125	-78.30574798583984	-11.579500198364258	106.7467269897461	-128.67051696777344	0.9018232226371765	20.148439407348633	-1.4210811853408813	5.557223796844482	9.837329864501953
AY0046-C	268.7518005371094	-79.51703643798828	-10.76777172088623	79.05425262451172	-100.87055969238281	3.8185081481933594	44.69411849975586	7.012650966644287	7.291158676147461	2.322207450866699
AY0047-C	263.6784362792969	-78.07210540771484	-8.006987571716309	111.82084655761719	-118.51729583740234	1.191077470779419	26.287017822265625	5.471993446350098	-1.79695725440979	1.1557825803756714
AY0048-C	259.2438049316406	-73.29289245605469	-8.699676513671875	117.36067962646484	-83.9622802734375	0.3086349368095398	25.48202896118164	6.154447555541992	4.170144081115723	2.4688987731933594
AY0049-C	260.1523742675781	-78.37956237792969	-8.323152542114258	80.09300231933594	-112.5143814086914	3.595524311065674	51.08325958251953	3.990511417388916	5.284619331359863	-1.0155506134033203
AY0050-C	255.9486541748047	-71.93104553222656	-5.319975852966309	81.50252532958984	-111.75043487548828	0.7543476819992065	44.254520416259766	-11.62712287902832	3.2680888175964355	-4.101957321166992
AY0052-C	263.0360107421875	-76.5821533203125	-14.764572143554688	115.45024871826172	-108.47442626953125	-2.6948587894439697	34.625728607177734	4.183906078338623	0.10881731659173965	7.50433349609375
AY0053-C	257.8130798339844	-74.0946044921875	-6.986763954162598	97.94473266601562	-102.77545166015625	5.225222110748291	52.502925872802734	0.04638921096920967	0.4996650218963623	0.6048592329025269
AY0054-C	265.2841796875	-82.91636657714844	-8.904239654541016	86.18926239013672	-126.48844909667969	2.1182096004486084	64.91862487792969	12.072027206420898	1.5870600938796997	0.24909797310829163
AY0055-C	260.45166015625	-73.00208282470703	-9.287856101989746	60.2546272277832	-121.27545166015625	-2.917980432510376	33.619388580322266	7.2701735496521	-4.061877727508545	-2.6795265674591064
AY0056-C	267.06793212890625	-72.64757537841797	-13.682291030883789	118.94760131835938	-124.53372955322266	0.6440885663032532	43.06502914428711	2.7698898315429688	4.089675426483154	1.9428749084472656
AY0057-C	259.9801940917969	-70.34326934814453	-10.579947471618652	76.73670196533203	-83.04556274414062	1.3426727056503296	25.680471420288086	0.09236008673906326	-1.3173409700393677	0.261747270822525
AY0058-C	261.6654052734375	-74.3661880493164	-8.720842361450195	109.4506607055664	-86.1104736328125	0.6401529908180237	25.786649703979492	12.273345947265625	1.8330801725387573	5.107449531555176
AY0059-C	265.5663757324219	-70.81674194335938	-10.31512451171875	98.6100082397461	-66.39122009277344	2.617385149002075	43.57512283325195	-5.064087867736816	-0.7503398656845093	4.412261486053467
AY0060-C	267.2107849121094	-70.6295166015625	-18.43099594116211	78.8735122680664	-71.71187591552734	8.569684028625488	46.55581283569336	4.32210111618042	-2.451306104660034	4.386944770812988
AY0061-C	263.99017333984375	-77.97872924804688	-6.861442565917969	110.08540344238281	-146.08721923828125	6.555780410766602	53.119266510009766	4.007685661315918	3.3100993633270264	8.05077075958252
AY0062-C	265.4508056640625	-66.67989349365234	-23.78206443786621	85.29225158691406	-95.76235961914062	3.8398818969726562	42.9869384765625	3.693199634552002	4.626274585723877	4.58878755569458
AY0063-C	262.94873046875	-68.81623077392578	-9.308605194091797	58.34762954711914	-73.78305053710938	0.5642860531806946	35.174869537353516	2.752899646759033	4.828226566314697	0.9375926852226257
AY0064-C	265.3199768066406	-73.56765747070312	-9.880640029907227	103.4660873413086	-102.84902954101562	5.544891357421875	42.060882568359375	1.3855067491531372	-0.3634066581726074	4.030822277069092
AY0065-C	261.8886413574219	-79.71075439453125	-7.334782600402832	67.50611877441406	-100.41816711425781	2.767331123352051	51.55615997314453	2.0812833309173584	-2.568749189376831	2.249006986618042
AY0066-C	264.88055419921875	-70.96065521240234	-15.642763137817383	100.37799835205078	-103.7720947265625	1.0491372346878052	56.122684478759766	2.606513500213623	8.054649353027344	1.4742887020111084
AY0067-C	259.23828125	-74.53080749511719	-3.620239019393921	81.75178527832031	-114.5802230834961	4.422979354858398	46.976280212402344	6.813506603240967	3.1665494441986084	-4.172447681427002
AY0068-C	263.4169921875	-76.2403564453125	-8.027377128601074	88.92605590820312	-127.51518249511719	-0.9718918204307556	30.425140380859375	10.495462417602539	0.464128315448761	2.8032472133636475
AY0069-C	266.1742858886719	-79.89447784423828	-12.865519523620605	122.44662475585938	-133.34519958496094	2.906928539276123	41.015220642089844	4.122265815734863	4.32117223739624	6.217088222503662
AY0070-C	263.9383239746094	-76.33908081054688	-4.6180195808410645	75.81025695800781	-96.67877960205078	0.9952853322029114	39.68091583251953	9.910360336303711	-0.5632522702217102	0.7067582607269287
AY0072-C	264.6327819824219	-78.22493743896484	-8.963602066040039	118.16333770751953	-111.96047973632812	0.19279175996780396	47.20051193237305	-2.2256429195404053	-2.7658419609069824	-1.1261866092681885
AY0074-C	261.37628173828125	-65.73836517333984	-21.17820930480957	121.0249252319336	-96.26849365234375	1.4551318883895874	24.512104034423828	-2.6893746852874756	7.220315456390381	9.294896125793457
AY0076-C	258.0485534667969	-73.29035949707031	-3.3451120853424072	85.97799682617188	-118.1712417602539	4.516425609588623	27.56064224243164	1.2782076597213745	1.5069565773010254	1.2677336931228638
AY0077-C	253.70591735839844	-68.984375	-12.522903442382812	107.5293960571289	-93.97139739990234	1.0944604873657227	39.37578201293945	9.784875869750977	-3.871000051498413	3.2697396278381348
AY0078-C	261.3311767578125	-76.56288146972656	-7.3434367179870605	98.13565826416016	-120.84456634521484	-0.8596622347831726	46.1026496887207	7.017500400543213	7.234312534332275	6.910309791564941
AY0079-C	263.10858154296875	-75.20945739746094	-7.6498918533325195	126.62752532958984	-133.93328857421875	-0.12480445951223373	47.139434814453125	6.375901222229004	1.2149895429611206	7.367758750915527
AY0080-C	260.74212646484375	-75.96857452392578	-4.652106285095215	113.34318542480469	-91.73929595947266	6.913680076599121	31.762231826782227	6.156574726104736	3.581117868423462	-3.6927027702331543
AY0082-C	255.6226806640625	-72.65193176269531	-8.328691482543945	93.60079193115234	-111.21073913574219	2.3673930168151855	34.39603042602539	11.439574241638184	8.860677719116211	-2.153601884841919
AY0083-C	263.75335693359375	-73.5918960571289	-7.182950973510742	78.50914001464844	-118.5629653930664	3.1070353984832764	49.64413070678711	9.923962593078613	2.032092332839966	0.6212711930274963
AY0085-C	259.2156982421875	-72.77277374267578	-9.003777503967285	93.37086486816406	-95.58948516845703	6.2498602867126465	46.87569808959961	0.10823766142129898	-4.4728899002075195	0.807154655456543
AY0087-C	266.1397705078125	-77.01602935791016	-11.17241096496582	98.13428497314453	-117.25349426269531	5.378049373626709	64.93817901611328	-1.8840428590774536	-5.162866592407227	-0.2175743579864502
AY0088-C	260.38800048828125	-73.18647003173828	-4.0545830726623535	82.31525421142578	-78.57244873046875	-0.3603849709033966	51.3825798034668	2.114654064178467	6.776479244232178	-1.278633952140808
AY0089-C	266.5390625	-76.78824615478516	-10.011205673217773	108.73925018310547	-116.66470336914062	-1.5105903148651123	59.830440521240234	3.3544256687164307	-4.736672878265381	-2.970121145248413
AY0090-C	263.032958984375	-71.5809097290039	-11.196192741394043	94.90443420410156	-79.05071258544922	-0.20840422809123993	43.37141418457031	7.926349639892578	-3.8765735626220703	7.2750701904296875
AY0091-C	261.46697998046875	-73.67271423339844	-10.675984382629395	85.47569274902344	-90.74832916259766	4.906509876251221	41.45338439941406	6.982748031616211	1.5772778987884521	0.7189623117446899
